digraph Tree {
node [shape=box, style="filled, rounded", color="black", fontname=helvetica] ;
edge [fontname=helvetica] ;
0 [label=<EDAD_(60.0, 80.0] &le; 0.5<br/>gini = 0.061<br/>samples = 58885<br/>value = [1842, 57043]<br/>class = Sobrevive>, fillcolor="#3fa0e6"] ;
1 [label=<EDAD_(80.0, 100.0] &le; 0.5<br/>gini = 0.043<br/>samples = 52012<br/>value = [1137, 50875]<br/>class = Sobrevive>, fillcolor="#3d9fe6"] ;
0 -> 1 [labeldistance=2.5, labelangle=45, headlabel="True"] ;
2 [label=<DIABETES &le; 0.5<br/>gini = 0.037<br/>samples = 50770<br/>value = [946, 49824]<br/>class = Sobrevive>, fillcolor="#3d9fe5"] ;
1 -> 2 ;
3 [label=<EDAD_(40.0, 60.0] &le; 0.5<br/>gini = 0.027<br/>samples = 46311<br/>value = [627, 45684]<br/>class = Sobrevive>, fillcolor="#3c9ee5"] ;
2 -> 3 ;
4 [label=<INMUSUPR &le; 0.5<br/>gini = 0.014<br/>samples = 29827<br/>value = [213, 29614]<br/>class = Sobrevive>, fillcolor="#3a9ee5"] ;
3 -> 4 ;
5 [label=<Estado_Chihuahua &le; 0.5<br/>gini = 0.013<br/>samples = 29237<br/>value = [187, 29050]<br/>class = Sobrevive>, fillcolor="#3a9ee5"] ;
4 -> 5 ;
6 [label=<gini = 0.012<br/>samples = 28876<br/>value = [171, 28705]<br/>class = Sobrevive>, fillcolor="#3a9ee5"] ;
5 -> 6 ;
7 [label=<gini = 0.085<br/>samples = 361<br/>value = [16, 345]<br/>class = Sobrevive>, fillcolor="#42a2e6"] ;
5 -> 7 ;
8 [label=<Estado_Guerrero &le; 0.5<br/>gini = 0.084<br/>samples = 590<br/>value = [26, 564]<br/>class = Sobrevive>, fillcolor="#42a2e6"] ;
4 -> 8 ;
9 [label=<gini = 0.081<br/>samples = 588<br/>value = [25, 563]<br/>class = Sobrevive>, fillcolor="#42a1e6"] ;
8 -> 9 ;
10 [label=<gini = 0.5<br/>samples = 2<br/>value = [1, 1]<br/>class = Muere>, fillcolor="#ffffff"] ;
8 -> 10 ;
11 [label=<Sexo Masculino &le; 0.5<br/>gini = 0.049<br/>samples = 16484<br/>value = [414, 16070]<br/>class = Sobrevive>, fillcolor="#3ea0e6"] ;
3 -> 11 ;
12 [label=<OBESIDAD &le; 0.5<br/>gini = 0.025<br/>samples = 8364<br/>value = [106, 8258]<br/>class = Sobrevive>, fillcolor="#3c9ee5"] ;
11 -> 12 ;
13 [label=<gini = 0.019<br/>samples = 6832<br/>value = [67, 6765]<br/>class = Sobrevive>, fillcolor="#3b9ee5"] ;
12 -> 13 ;
14 [label=<gini = 0.05<br/>samples = 1532<br/>value = [39, 1493]<br/>class = Sobrevive>, fillcolor="#3ea0e6"] ;
12 -> 14 ;
15 [label=<Estado_Chihuahua &le; 0.5<br/>gini = 0.073<br/>samples = 8120<br/>value = [308, 7812]<br/>class = Sobrevive>, fillcolor="#41a1e6"] ;
11 -> 15 ;
16 [label=<gini = 0.07<br/>samples = 8014<br/>value = [289, 7725]<br/>class = Sobrevive>, fillcolor="#40a1e6"] ;
15 -> 16 ;
17 [label=<gini = 0.294<br/>samples = 106<br/>value = [19, 87]<br/>class = Sobrevive>, fillcolor="#64b2eb"] ;
15 -> 17 ;
18 [label=<Estado_Quintana Roo &le; 0.5<br/>gini = 0.133<br/>samples = 4459<br/>value = [319, 4140]<br/>class = Sobrevive>, fillcolor="#48a5e7"] ;
2 -> 18 ;
19 [label=<Sexo Masculino &le; 0.5<br/>gini = 0.126<br/>samples = 4338<br/>value = [294, 4044]<br/>class = Sobrevive>, fillcolor="#47a4e7"] ;
18 -> 19 ;
20 [label=<Otra Enfermedad Pre-existente &le; 0.5<br/>gini = 0.09<br/>samples = 2139<br/>value = [101, 2038]<br/>class = Sobrevive>, fillcolor="#43a2e6"] ;
19 -> 20 ;
21 [label=<gini = 0.105<br/>samples = 1699<br/>value = [94, 1605]<br/>class = Sobrevive>, fillcolor="#45a3e7"] ;
20 -> 21 ;
22 [label=<gini = 0.031<br/>samples = 440<br/>value = [7, 433]<br/>class = Sobrevive>, fillcolor="#3c9fe5"] ;
20 -> 22 ;
23 [label=<RENAL_CRONICA &le; 0.5<br/>gini = 0.16<br/>samples = 2199<br/>value = [193, 2006]<br/>class = Sobrevive>, fillcolor="#4ca6e8"] ;
19 -> 23 ;
24 [label=<gini = 0.147<br/>samples = 2012<br/>value = [161, 1851]<br/>class = Sobrevive>, fillcolor="#4aa6e7"] ;
23 -> 24 ;
25 [label=<gini = 0.284<br/>samples = 187<br/>value = [32, 155]<br/>class = Sobrevive>, fillcolor="#62b1ea"] ;
23 -> 25 ;
26 [label=<Habla Lengua Indígena &le; 0.5<br/>gini = 0.328<br/>samples = 121<br/>value = [25, 96]<br/>class = Sobrevive>, fillcolor="#6db7ec"] ;
18 -> 26 ;
27 [label=<Días Sintomático sin Hospitalizar &le; 6.5<br/>gini = 0.297<br/>samples = 116<br/>value = [21, 95]<br/>class = Sobrevive>, fillcolor="#65b3eb"] ;
26 -> 27 ;
28 [label=<gini = 0.24<br/>samples = 93<br/>value = [13, 80]<br/>class = Sobrevive>, fillcolor="#59ade9"] ;
27 -> 28 ;
29 [label=<gini = 0.454<br/>samples = 23<br/>value = [8, 15]<br/>class = Sobrevive>, fillcolor="#a3d1f3"] ;
27 -> 29 ;
30 [label=<Días Sintomático sin Hospitalizar &le; 2.5<br/>gini = 0.32<br/>samples = 5<br/>value = [4, 1]<br/>class = Muere>, fillcolor="#eca06a"] ;
26 -> 30 ;
31 [label=<gini = 0.0<br/>samples = 1<br/>value = [0, 1]<br/>class = Sobrevive>, fillcolor="#399de5"] ;
30 -> 31 ;
32 [label=<gini = 0.0<br/>samples = 4<br/>value = [4, 0]<br/>class = Muere>, fillcolor="#e58139"] ;
30 -> 32 ;
33 [label=<Estado_Nuevo León &le; 0.5<br/>gini = 0.26<br/>samples = 1242<br/>value = [191, 1051]<br/>class = Sobrevive>, fillcolor="#5dafea"] ;
1 -> 33 ;
34 [label=<Otra Enfermedad Pre-existente &le; 0.5<br/>gini = 0.272<br/>samples = 1158<br/>value = [188, 970]<br/>class = Sobrevive>, fillcolor="#5fb0ea"] ;
33 -> 34 ;
35 [label=<Estado_Tabasco &le; 0.5<br/>gini = 0.288<br/>samples = 996<br/>value = [174, 822]<br/>class = Sobrevive>, fillcolor="#63b2eb"] ;
34 -> 35 ;
36 [label=<DIABETES &le; 0.5<br/>gini = 0.284<br/>samples = 986<br/>value = [169, 817]<br/>class = Sobrevive>, fillcolor="#62b1ea"] ;
35 -> 36 ;
37 [label=<gini = 0.253<br/>samples = 647<br/>value = [96, 551]<br/>class = Sobrevive>, fillcolor="#5baeea"] ;
36 -> 37 ;
38 [label=<gini = 0.338<br/>samples = 339<br/>value = [73, 266]<br/>class = Sobrevive>, fillcolor="#6fb8ec"] ;
36 -> 38 ;
39 [label=<CARDIOVASCULAR &le; 0.5<br/>gini = 0.5<br/>samples = 10<br/>value = [5, 5]<br/>class = Muere>, fillcolor="#ffffff"] ;
35 -> 39 ;
40 [label=<gini = 0.408<br/>samples = 7<br/>value = [2, 5]<br/>class = Sobrevive>, fillcolor="#88c4ef"] ;
39 -> 40 ;
41 [label=<gini = 0.0<br/>samples = 3<br/>value = [3, 0]<br/>class = Muere>, fillcolor="#e58139"] ;
39 -> 41 ;
42 [label=<Días Sintomático sin Hospitalizar &le; 12.5<br/>gini = 0.158<br/>samples = 162<br/>value = [14, 148]<br/>class = Sobrevive>, fillcolor="#4ca6e7"] ;
34 -> 42 ;
43 [label=<Estado_Estado de México &le; 0.5<br/>gini = 0.132<br/>samples = 155<br/>value = [11, 144]<br/>class = Sobrevive>, fillcolor="#48a4e7"] ;
42 -> 43 ;
44 [label=<gini = 0.084<br/>samples = 137<br/>value = [6, 131]<br/>class = Sobrevive>, fillcolor="#42a1e6"] ;
43 -> 44 ;
45 [label=<gini = 0.401<br/>samples = 18<br/>value = [5, 13]<br/>class = Sobrevive>, fillcolor="#85c3ef"] ;
43 -> 45 ;
46 [label=<Estado_Ciudad de México &le; 0.5<br/>gini = 0.49<br/>samples = 7<br/>value = [3, 4]<br/>class = Sobrevive>, fillcolor="#cee6f8"] ;
42 -> 46 ;
47 [label=<gini = 0.0<br/>samples = 4<br/>value = [0, 4]<br/>class = Sobrevive>, fillcolor="#399de5"] ;
46 -> 47 ;
48 [label=<gini = 0.0<br/>samples = 3<br/>value = [3, 0]<br/>class = Muere>, fillcolor="#e58139"] ;
46 -> 48 ;
49 [label=<EPOC &le; 0.5<br/>gini = 0.069<br/>samples = 84<br/>value = [3, 81]<br/>class = Sobrevive>, fillcolor="#40a1e6"] ;
33 -> 49 ;
50 [label=<OBESIDAD &le; 0.5<br/>gini = 0.051<br/>samples = 77<br/>value = [2, 75]<br/>class = Sobrevive>, fillcolor="#3ea0e6"] ;
49 -> 50 ;
51 [label=<Días Sintomático sin Hospitalizar &le; 0.5<br/>gini = 0.029<br/>samples = 67<br/>value = [1, 66]<br/>class = Sobrevive>, fillcolor="#3c9ee5"] ;
50 -> 51 ;
52 [label=<gini = 0.095<br/>samples = 20<br/>value = [1, 19]<br/>class = Sobrevive>, fillcolor="#43a2e6"] ;
51 -> 52 ;
53 [label=<gini = 0.0<br/>samples = 47<br/>value = [0, 47]<br/>class = Sobrevive>, fillcolor="#399de5"] ;
51 -> 53 ;
54 [label=<Días Sintomático sin Hospitalizar &le; 3.5<br/>gini = 0.18<br/>samples = 10<br/>value = [1, 9]<br/>class = Sobrevive>, fillcolor="#4fa8e8"] ;
50 -> 54 ;
55 [label=<gini = 0.0<br/>samples = 8<br/>value = [0, 8]<br/>class = Sobrevive>, fillcolor="#399de5"] ;
54 -> 55 ;
56 [label=<gini = 0.5<br/>samples = 2<br/>value = [1, 1]<br/>class = Muere>, fillcolor="#ffffff"] ;
54 -> 56 ;
57 [label=<HIPERTENSION &le; 0.5<br/>gini = 0.245<br/>samples = 7<br/>value = [1, 6]<br/>class = Sobrevive>, fillcolor="#5aade9"] ;
49 -> 57 ;
58 [label=<gini = 0.0<br/>samples = 3<br/>value = [0, 3]<br/>class = Sobrevive>, fillcolor="#399de5"] ;
57 -> 58 ;
59 [label=<Sexo Masculino &le; 0.5<br/>gini = 0.375<br/>samples = 4<br/>value = [1, 3]<br/>class = Sobrevive>, fillcolor="#7bbeee"] ;
57 -> 59 ;
60 [label=<gini = 0.0<br/>samples = 3<br/>value = [0, 3]<br/>class = Sobrevive>, fillcolor="#399de5"] ;
59 -> 60 ;
61 [label=<gini = 0.0<br/>samples = 1<br/>value = [1, 0]<br/>class = Muere>, fillcolor="#e58139"] ;
59 -> 61 ;
62 [label=<Otra Enfermedad Pre-existente &le; 0.5<br/>gini = 0.184<br/>samples = 6873<br/>value = [705, 6168]<br/>class = Sobrevive>, fillcolor="#50a8e8"] ;
0 -> 62 [labeldistance=2.5, labelangle=-45, headlabel="False"] ;
63 [label=<Estado_Nuevo León &le; 0.5<br/>gini = 0.209<br/>samples = 5418<br/>value = [644, 4774]<br/>class = Sobrevive>, fillcolor="#54aae9"] ;
62 -> 63 ;
64 [label=<DIABETES &le; 0.5<br/>gini = 0.222<br/>samples = 5008<br/>value = [638, 4370]<br/>class = Sobrevive>, fillcolor="#56abe9"] ;
63 -> 64 ;
65 [label=<Estado_Quintana Roo &le; 0.5<br/>gini = 0.194<br/>samples = 3071<br/>value = [335, 2736]<br/>class = Sobrevive>, fillcolor="#51a9e8"] ;
64 -> 65 ;
66 [label=<Días Sintomático sin Hospitalizar &le; 25.5<br/>gini = 0.19<br/>samples = 2997<br/>value = [318, 2679]<br/>class = Sobrevive>, fillcolor="#51a9e8"] ;
65 -> 66 ;
67 [label=<gini = 0.189<br/>samples = 2996<br/>value = [317, 2679]<br/>class = Sobrevive>, fillcolor="#50a9e8"] ;
66 -> 67 ;
68 [label=<gini = 0.0<br/>samples = 1<br/>value = [1, 0]<br/>class = Muere>, fillcolor="#e58139"] ;
66 -> 68 ;
69 [label=<Días Sintomático sin Hospitalizar &le; 7.5<br/>gini = 0.354<br/>samples = 74<br/>value = [17, 57]<br/>class = Sobrevive>, fillcolor="#74baed"] ;
65 -> 69 ;
70 [label=<gini = 0.301<br/>samples = 65<br/>value = [12, 53]<br/>class = Sobrevive>, fillcolor="#66b3eb"] ;
69 -> 70 ;
71 [label=<gini = 0.494<br/>samples = 9<br/>value = [5, 4]<br/>class = Muere>, fillcolor="#fae6d7"] ;
69 -> 71 ;
72 [label=<EPOC &le; 0.5<br/>gini = 0.264<br/>samples = 1937<br/>value = [303, 1634]<br/>class = Sobrevive>, fillcolor="#5eafea"] ;
64 -> 72 ;
73 [label=<RENAL_CRONICA &le; 0.5<br/>gini = 0.247<br/>samples = 1649<br/>value = [238, 1411]<br/>class = Sobrevive>, fillcolor="#5aaee9"] ;
72 -> 73 ;
74 [label=<gini = 0.227<br/>samples = 1414<br/>value = [185, 1229]<br/>class = Sobrevive>, fillcolor="#57ace9"] ;
73 -> 74 ;
75 [label=<gini = 0.349<br/>samples = 235<br/>value = [53, 182]<br/>class = Sobrevive>, fillcolor="#73baed"] ;
73 -> 75 ;
76 [label=<Estado_Yucatán &le; 0.5<br/>gini = 0.35<br/>samples = 288<br/>value = [65, 223]<br/>class = Sobrevive>, fillcolor="#73baed"] ;
72 -> 76 ;
77 [label=<gini = 0.344<br/>samples = 286<br/>value = [63, 223]<br/>class = Sobrevive>, fillcolor="#71b9ec"] ;
76 -> 77 ;
78 [label=<gini = 0.0<br/>samples = 2<br/>value = [2, 0]<br/>class = Muere>, fillcolor="#e58139"] ;
76 -> 78 ;
79 [label=<CARDIOVASCULAR &le; 0.5<br/>gini = 0.029<br/>samples = 410<br/>value = [6, 404]<br/>class = Sobrevive>, fillcolor="#3c9ee5"] ;
63 -> 79 ;
80 [label=<Días Sintomático sin Hospitalizar &le; 9.5<br/>gini = 0.016<br/>samples = 368<br/>value = [3, 365]<br/>class = Sobrevive>, fillcolor="#3b9ee5"] ;
79 -> 80 ;
81 [label=<OTRA_COM &le; 0.5<br/>gini = 0.011<br/>samples = 351<br/>value = [2, 349]<br/>class = Sobrevive>, fillcolor="#3a9ee5"] ;
80 -> 81 ;
82 [label=<gini = 0.006<br/>samples = 334<br/>value = [1, 333]<br/>class = Sobrevive>, fillcolor="#3a9de5"] ;
81 -> 82 ;
83 [label=<gini = 0.111<br/>samples = 17<br/>value = [1, 16]<br/>class = Sobrevive>, fillcolor="#45a3e7"] ;
81 -> 83 ;
84 [label=<Sexo Masculino &le; 0.5<br/>gini = 0.111<br/>samples = 17<br/>value = [1, 16]<br/>class = Sobrevive>, fillcolor="#45a3e7"] ;
80 -> 84 ;
85 [label=<gini = 0.0<br/>samples = 11<br/>value = [0, 11]<br/>class = Sobrevive>, fillcolor="#399de5"] ;
84 -> 85 ;
86 [label=<gini = 0.278<br/>samples = 6<br/>value = [1, 5]<br/>class = Sobrevive>, fillcolor="#61b1ea"] ;
84 -> 86 ;
87 [label=<Días Sintomático sin Hospitalizar &le; 6.0<br/>gini = 0.133<br/>samples = 42<br/>value = [3, 39]<br/>class = Sobrevive>, fillcolor="#48a5e7"] ;
79 -> 87 ;
88 [label=<INMUSUPR &le; 0.5<br/>gini = 0.1<br/>samples = 38<br/>value = [2, 36]<br/>class = Sobrevive>, fillcolor="#44a2e6"] ;
87 -> 88 ;
89 [label=<gini = 0.056<br/>samples = 35<br/>value = [1, 34]<br/>class = Sobrevive>, fillcolor="#3fa0e6"] ;
88 -> 89 ;
90 [label=<gini = 0.444<br/>samples = 3<br/>value = [1, 2]<br/>class = Sobrevive>, fillcolor="#9ccef2"] ;
88 -> 90 ;
91 [label=<INMUSUPR &le; 0.5<br/>gini = 0.375<br/>samples = 4<br/>value = [1, 3]<br/>class = Sobrevive>, fillcolor="#7bbeee"] ;
87 -> 91 ;
92 [label=<gini = 0.5<br/>samples = 2<br/>value = [1, 1]<br/>class = Muere>, fillcolor="#ffffff"] ;
91 -> 92 ;
93 [label=<gini = 0.0<br/>samples = 2<br/>value = [0, 2]<br/>class = Sobrevive>, fillcolor="#399de5"] ;
91 -> 93 ;
94 [label=<Habla Lengua Indígena &le; 0.5<br/>gini = 0.08<br/>samples = 1455<br/>value = [61, 1394]<br/>class = Sobrevive>, fillcolor="#42a1e6"] ;
62 -> 94 ;
95 [label=<Días Sintomático sin Hospitalizar &le; 13.5<br/>gini = 0.074<br/>samples = 1429<br/>value = [55, 1374]<br/>class = Sobrevive>, fillcolor="#41a1e6"] ;
94 -> 95 ;
96 [label=<Estado_Morelos &le; 0.5<br/>gini = 0.068<br/>samples = 1391<br/>value = [49, 1342]<br/>class = Sobrevive>, fillcolor="#40a1e6"] ;
95 -> 96 ;
97 [label=<Estado_Hidalgo &le; 0.5<br/>gini = 0.063<br/>samples = 1371<br/>value = [45, 1326]<br/>class = Sobrevive>, fillcolor="#40a0e6"] ;
96 -> 97 ;
98 [label=<gini = 0.061<br/>samples = 1363<br/>value = [43, 1320]<br/>class = Sobrevive>, fillcolor="#3fa0e6"] ;
97 -> 98 ;
99 [label=<gini = 0.375<br/>samples = 8<br/>value = [2, 6]<br/>class = Sobrevive>, fillcolor="#7bbeee"] ;
97 -> 99 ;
100 [label=<EPOC &le; 0.5<br/>gini = 0.32<br/>samples = 20<br/>value = [4, 16]<br/>class = Sobrevive>, fillcolor="#6ab6ec"] ;
96 -> 100 ;
101 [label=<gini = 0.208<br/>samples = 17<br/>value = [2, 15]<br/>class = Sobrevive>, fillcolor="#53aae8"] ;
100 -> 101 ;
102 [label=<gini = 0.444<br/>samples = 3<br/>value = [2, 1]<br/>class = Muere>, fillcolor="#f2c09c"] ;
100 -> 102 ;
103 [label=<RENAL_CRONICA &le; 0.5<br/>gini = 0.266<br/>samples = 38<br/>value = [6, 32]<br/>class = Sobrevive>, fillcolor="#5eafea"] ;
95 -> 103 ;
104 [label=<Días Sintomático sin Hospitalizar &le; 14.5<br/>gini = 0.198<br/>samples = 36<br/>value = [4, 32]<br/>class = Sobrevive>, fillcolor="#52a9e8"] ;
103 -> 104 ;
105 [label=<gini = 0.32<br/>samples = 20<br/>value = [4, 16]<br/>class = Sobrevive>, fillcolor="#6ab6ec"] ;
104 -> 105 ;
106 [label=<gini = 0.0<br/>samples = 16<br/>value = [0, 16]<br/>class = Sobrevive>, fillcolor="#399de5"] ;
104 -> 106 ;
107 [label=<gini = 0.0<br/>samples = 2<br/>value = [2, 0]<br/>class = Muere>, fillcolor="#e58139"] ;
103 -> 107 ;
108 [label=<Días Sintomático sin Hospitalizar &le; 3.5<br/>gini = 0.355<br/>samples = 26<br/>value = [6, 20]<br/>class = Sobrevive>, fillcolor="#74baed"] ;
94 -> 108 ;
109 [label=<Estado_Yucatán &le; 0.5<br/>gini = 0.124<br/>samples = 15<br/>value = [1, 14]<br/>class = Sobrevive>, fillcolor="#47a4e7"] ;
108 -> 109 ;
110 [label=<gini = 0.0<br/>samples = 13<br/>value = [0, 13]<br/>class = Sobrevive>, fillcolor="#399de5"] ;
109 -> 110 ;
111 [label=<Sexo Masculino &le; 0.5<br/>gini = 0.5<br/>samples = 2<br/>value = [1, 1]<br/>class = Muere>, fillcolor="#ffffff"] ;
109 -> 111 ;
112 [label=<gini = 0.0<br/>samples = 1<br/>value = [1, 0]<br/>class = Muere>, fillcolor="#e58139"] ;
111 -> 112 ;
113 [label=<gini = 0.0<br/>samples = 1<br/>value = [0, 1]<br/>class = Sobrevive>, fillcolor="#399de5"] ;
111 -> 113 ;
114 [label=<Días Sintomático sin Hospitalizar &le; 4.5<br/>gini = 0.496<br/>samples = 11<br/>value = [5, 6]<br/>class = Sobrevive>, fillcolor="#deeffb"] ;
108 -> 114 ;
115 [label=<Estado_Oaxaca &le; 0.5<br/>gini = 0.375<br/>samples = 4<br/>value = [3, 1]<br/>class = Muere>, fillcolor="#eeab7b"] ;
114 -> 115 ;
116 [label=<gini = 0.0<br/>samples = 3<br/>value = [3, 0]<br/>class = Muere>, fillcolor="#e58139"] ;
115 -> 116 ;
117 [label=<gini = 0.0<br/>samples = 1<br/>value = [0, 1]<br/>class = Sobrevive>, fillcolor="#399de5"] ;
115 -> 117 ;
118 [label=<Estado_Oaxaca &le; 0.5<br/>gini = 0.408<br/>samples = 7<br/>value = [2, 5]<br/>class = Sobrevive>, fillcolor="#88c4ef"] ;
114 -> 118 ;
119 [label=<gini = 0.278<br/>samples = 6<br/>value = [1, 5]<br/>class = Sobrevive>, fillcolor="#61b1ea"] ;
118 -> 119 ;
120 [label=<gini = 0.0<br/>samples = 1<br/>value = [1, 0]<br/>class = Muere>, fillcolor="#e58139"] ;
118 -> 120 ;
}
